digraph Tree {
node [shape=box, style="filled", color="black", fontname="helvetica"] ;
edge [fontname="helvetica"] ;
0 [label="Sex_1 <= 0.5\ngini = 0.499\nsamples = 184\nvalue = [87, 97]", fillcolor="#ebf5fc"] ;
1 [label="Age <= 14.5\ngini = 0.394\nsamples = 111\nvalue = [81, 30]", fillcolor="#efb082"] ;
0 -> 1 [labeldistance=2.5, labelangle=45, headlabel="True"] ;
2 [label="gini = 0.0\nsamples = 5\nvalue = [0, 5]", fillcolor="#399de5"] ;
1 -> 2 ;
3 [label="PassengerId <= 355.5\ngini = 0.36\nsamples = 106\nvalue = [81, 25]", fillcolor="#eda876"] ;
1 -> 3 ;
4 [label="Cabin_5 <= 0.5\ngini = 0.139\nsamples = 40\nvalue = [37, 3]", fillcolor="#e78b49"] ;
3 -> 4 ;
5 [label="gini = 0.0\nsamples = 28\nvalue = [28, 0]", fillcolor="#e58139"] ;
4 -> 5 ;
6 [label="PassengerId <= 250.5\ngini = 0.375\nsamples = 12\nvalue = [9, 3]", fillcolor="#eeab7b"] ;
4 -> 6 ;
7 [label="Ticket_3 <= 0.5\ngini = 0.5\nsamples = 6\nvalue = [3, 3]", fillcolor="#ffffff"] ;
6 -> 7 ;
8 [label="gini = 0.0\nsamples = 3\nvalue = [0, 3]", fillcolor="#399de5"] ;
7 -> 8 ;
9 [label="gini = 0.0\nsamples = 3\nvalue = [3, 0]", fillcolor="#e58139"] ;
7 -> 9 ;
10 [label="gini = 0.0\nsamples = 6\nvalue = [6, 0]", fillcolor="#e58139"] ;
6 -> 10 ;
11 [label="Cabin_4 <= 0.5\ngini = 0.444\nsamples = 66\nvalue = [44, 22]", fillcolor="#f2c09c"] ;
3 -> 11 ;
12 [label="Fare <= 35.932\ngini = 0.357\nsamples = 43\nvalue = [33, 10]", fillcolor="#eda775"] ;
11 -> 12 ;
13 [label="Ticket_4 <= 0.5\ngini = 0.498\nsamples = 17\nvalue = [9, 8]", fillcolor="#fcf1e9"] ;
12 -> 13 ;
14 [label="Fare <= 25.938\ngini = 0.463\nsamples = 11\nvalue = [4, 7]", fillcolor="#aad5f4"] ;
13 -> 14 ;
15 [label="gini = 0.0\nsamples = 2\nvalue = [2, 0]", fillcolor="#e58139"] ;
14 -> 15 ;
16 [label="PassengerId <= 512.5\ngini = 0.346\nsamples = 9\nvalue = [2, 7]", fillcolor="#72b9ec"] ;
14 -> 16 ;
17 [label="Fare <= 28.24\ngini = 0.444\nsamples = 3\nvalue = [2, 1]", fillcolor="#f2c09c"] ;
16 -> 17 ;
18 [label="gini = 0.0\nsamples = 1\nvalue = [0, 1]", fillcolor="#399de5"] ;
17 -> 18 ;
19 [label="gini = 0.0\nsamples = 2\nvalue = [2, 0]", fillcolor="#e58139"] ;
17 -> 19 ;
20 [label="gini = 0.0\nsamples = 6\nvalue = [0, 6]", fillcolor="#399de5"] ;
16 -> 20 ;
21 [label="PassengerId <= 451.5\ngini = 0.278\nsamples = 6\nvalue = [5, 1]", fillcolor="#ea9a61"] ;
13 -> 21 ;
22 [label="gini = 0.0\nsamples = 1\nvalue = [0, 1]", fillcolor="#399de5"] ;
21 -> 22 ;
23 [label="gini = 0.0\nsamples = 5\nvalue = [5, 0]", fillcolor="#e58139"] ;
21 -> 23 ;
24 [label="Name_4 <= 0.5\ngini = 0.142\nsamples = 26\nvalue = [24, 2]", fillcolor="#e78c49"] ;
12 -> 24 ;
25 [label="gini = 0.0\nsamples = 20\nvalue = [20, 0]", fillcolor="#e58139"] ;
24 -> 25 ;
26 [label="Ticket_6 <= 0.5\ngini = 0.444\nsamples = 6\nvalue = [4, 2]", fillcolor="#f2c09c"] ;
24 -> 26 ;
27 [label="Cabin_6 <= 0.5\ngini = 0.32\nsamples = 5\nvalue = [4, 1]", fillcolor="#eca06a"] ;
26 -> 27 ;
28 [label="gini = 0.0\nsamples = 3\nvalue = [3, 0]", fillcolor="#e58139"] ;
27 -> 28 ;
29 [label="Cabin_7 <= 0.5\ngini = 0.5\nsamples = 2\nvalue = [1, 1]", fillcolor="#ffffff"] ;
27 -> 29 ;
30 [label="gini = 0.0\nsamples = 1\nvalue = [0, 1]", fillcolor="#399de5"] ;
29 -> 30 ;
31 [label="gini = 0.0\nsamples = 1\nvalue = [1, 0]", fillcolor="#e58139"] ;
29 -> 31 ;
32 [label="gini = 0.0\nsamples = 1\nvalue = [0, 1]", fillcolor="#399de5"] ;
26 -> 32 ;
33 [label="Fare <= 17.876\ngini = 0.499\nsamples = 23\nvalue = [11, 12]", fillcolor="#eff7fd"] ;
11 -> 33 ;
34 [label="gini = 0.0\nsamples = 6\nvalue = [6, 0]", fillcolor="#e58139"] ;
33 -> 34 ;
35 [label="Age <= 44.0\ngini = 0.415\nsamples = 17\nvalue = [5, 12]", fillcolor="#8bc6f0"] ;
33 -> 35 ;
36 [label="gini = 0.0\nsamples = 8\nvalue = [0, 8]", fillcolor="#399de5"] ;
35 -> 36 ;
37 [label="Name_3 <= 0.5\ngini = 0.494\nsamples = 9\nvalue = [5, 4]", fillcolor="#fae6d7"] ;
35 -> 37 ;
38 [label="gini = 0.0\nsamples = 3\nvalue = [3, 0]", fillcolor="#e58139"] ;
37 -> 38 ;
39 [label="Cabin_7 <= 0.5\ngini = 0.444\nsamples = 6\nvalue = [2, 4]", fillcolor="#9ccef2"] ;
37 -> 39 ;
40 [label="gini = 0.0\nsamples = 3\nvalue = [0, 3]", fillcolor="#399de5"] ;
39 -> 40 ;
41 [label="Embarked_1 <= 0.5\ngini = 0.444\nsamples = 3\nvalue = [2, 1]", fillcolor="#f2c09c"] ;
39 -> 41 ;
42 [label="gini = 0.0\nsamples = 2\nvalue = [2, 0]", fillcolor="#e58139"] ;
41 -> 42 ;
43 [label="gini = 0.0\nsamples = 1\nvalue = [0, 1]", fillcolor="#399de5"] ;
41 -> 43 ;
44 [label="Fare <= 10.481\ngini = 0.151\nsamples = 73\nvalue = [6, 67]", fillcolor="#4ba6e7"] ;
0 -> 44 [labeldistance=2.5, labelangle=-45, headlabel="False"] ;
45 [label="gini = 0.0\nsamples = 2\nvalue = [2, 0]", fillcolor="#e58139"] ;
44 -> 45 ;
46 [label="Age <= 3.0\ngini = 0.106\nsamples = 71\nvalue = [4, 67]", fillcolor="#45a3e7"] ;
44 -> 46 ;
47 [label="gini = 0.0\nsamples = 1\nvalue = [1, 0]", fillcolor="#e58139"] ;
46 -> 47 ;
48 [label="Age <= 49.5\ngini = 0.082\nsamples = 70\nvalue = [3, 67]", fillcolor="#42a1e6"] ;
46 -> 48 ;
49 [label="Parch <= 1.5\ngini = 0.034\nsamples = 57\nvalue = [1, 56]", fillcolor="#3d9fe5"] ;
48 -> 49 ;
50 [label="gini = 0.0\nsamples = 48\nvalue = [0, 48]", fillcolor="#399de5"] ;
49 -> 50 ;
51 [label="Ticket_1 <= 0.5\ngini = 0.198\nsamples = 9\nvalue = [1, 8]", fillcolor="#52a9e8"] ;
49 -> 51 ;
52 [label="gini = 0.0\nsamples = 7\nvalue = [0, 7]", fillcolor="#399de5"] ;
51 -> 52 ;
53 [label="Name_4 <= 0.5\ngini = 0.5\nsamples = 2\nvalue = [1, 1]", fillcolor="#ffffff"] ;
51 -> 53 ;
54 [label="gini = 0.0\nsamples = 1\nvalue = [1, 0]", fillcolor="#e58139"] ;
53 -> 54 ;
55 [label="gini = 0.0\nsamples = 1\nvalue = [0, 1]", fillcolor="#399de5"] ;
53 -> 55 ;
56 [label="Fare <= 40.096\ngini = 0.26\nsamples = 13\nvalue = [2, 11]", fillcolor="#5dafea"] ;
48 -> 56 ;
57 [label="Name_6 <= 0.5\ngini = 0.444\nsamples = 3\nvalue = [2, 1]", fillcolor="#f2c09c"] ;
56 -> 57 ;
58 [label="gini = 0.0\nsamples = 1\nvalue = [0, 1]", fillcolor="#399de5"] ;
57 -> 58 ;
59 [label="gini = 0.0\nsamples = 2\nvalue = [2, 0]", fillcolor="#e58139"] ;
57 -> 59 ;
60 [label="gini = 0.0\nsamples = 10\nvalue = [0, 10]", fillcolor="#399de5"] ;
56 -> 60 ;
}