digraph Tree {
node [shape=box, style="filled", color="black", fontname="helvetica"] ;
edge [fontname="helvetica"] ;
0 [label="CustomerID <= 45685.0\ngini = 0.5\nsamples = 50821\nvalue = [25419.0, 25402.0]", fillcolor="#ffffff"] ;
1 [label="Payment Delay <= 15.094\ngini = 0.403\nsamples = 35269\nvalue = [25419, 9850]", fillcolor="#efb286"] ;
0 -> 1 [labeldistance=2.5, labelangle=45, headlabel="True"] ;
2 [label="Usage Frequency <= 5.952\ngini = 0.083\nsamples = 17737\nvalue = [16971, 766]", fillcolor="#e68742"] ;
1 -> 2 ;
3 [label="Age <= 50.1\ngini = 0.381\nsamples = 2930\nvalue = [2179, 751]", fillcolor="#eeac7d"] ;
2 -> 3 ;
4 [label="Usage Frequency <= 2.928\ngini = 0.132\nsamples = 1993\nvalue = [1851, 142]", fillcolor="#e78b48"] ;
3 -> 4 ;
5 [label="Contract Length_1 <= 0.718\ngini = 0.277\nsamples = 781\nvalue = [651, 130]", fillcolor="#ea9a61"] ;
4 -> 5 ;
6 [label="Total Spend <= 300.5\ngini = 0.484\nsamples = 280\nvalue = [165, 115]", fillcolor="#f7d9c3"] ;
5 -> 6 ;
7 [label="gini = 0.0\nsamples = 68\nvalue = [0, 68]", fillcolor="#399de5"] ;
6 -> 7 ;
8 [label="Tenure <= 11.5\ngini = 0.345\nsamples = 212\nvalue = [165, 47]", fillcolor="#eca571"] ;
6 -> 8 ;
9 [label="gini = 0.0\nsamples = 45\nvalue = [0, 45]", fillcolor="#399de5"] ;
8 -> 9 ;
10 [label="Contract Length_1 <= 0.218\ngini = 0.024\nsamples = 167\nvalue = [165, 2]", fillcolor="#e5833b"] ;
8 -> 10 ;
11 [label="Age <= 42.421\ngini = 0.012\nsamples = 166\nvalue = [165, 1]", fillcolor="#e5823a"] ;
10 -> 11 ;
12 [label="gini = 0.0\nsamples = 140\nvalue = [140, 0]", fillcolor="#e58139"] ;
11 -> 12 ;
13 [label="Age <= 42.921\ngini = 0.074\nsamples = 26\nvalue = [25, 1]", fillcolor="#e68641"] ;
11 -> 13 ;
14 [label="gini = 0.0\nsamples = 1\nvalue = [0, 1]", fillcolor="#399de5"] ;
13 -> 14 ;
15 [label="gini = 0.0\nsamples = 25\nvalue = [25, 0]", fillcolor="#e58139"] ;
13 -> 15 ;
16 [label="gini = 0.0\nsamples = 1\nvalue = [0, 1]", fillcolor="#399de5"] ;
10 -> 16 ;
17 [label="Usage Frequency <= 2.06\ngini = 0.058\nsamples = 501\nvalue = [486, 15]", fillcolor="#e6853f"] ;
5 -> 17 ;
18 [label="Tenure <= 5.5\ngini = 0.047\nsamples = 498\nvalue = [486, 12]", fillcolor="#e6843e"] ;
17 -> 18 ;
19 [label="Subscription Type_0 <= 0.5\ngini = 0.343\nsamples = 50\nvalue = [39, 11]", fillcolor="#eca571"] ;
18 -> 19 ;
20 [label="gini = 0.0\nsamples = 11\nvalue = [0, 11]", fillcolor="#399de5"] ;
19 -> 20 ;
21 [label="gini = 0.0\nsamples = 39\nvalue = [39, 0]", fillcolor="#e58139"] ;
19 -> 21 ;
22 [label="Age <= 47.068\ngini = 0.004\nsamples = 448\nvalue = [447, 1]", fillcolor="#e58139"] ;
18 -> 22 ;
23 [label="gini = 0.0\nsamples = 407\nvalue = [407, 0]", fillcolor="#e58139"] ;
22 -> 23 ;
24 [label="Age <= 47.568\ngini = 0.048\nsamples = 41\nvalue = [40, 1]", fillcolor="#e6843e"] ;
22 -> 24 ;
25 [label="gini = 0.0\nsamples = 1\nvalue = [0, 1]", fillcolor="#399de5"] ;
24 -> 25 ;
26 [label="gini = 0.0\nsamples = 40\nvalue = [40, 0]", fillcolor="#e58139"] ;
24 -> 26 ;
27 [label="gini = 0.0\nsamples = 3\nvalue = [0, 3]", fillcolor="#399de5"] ;
17 -> 27 ;
28 [label="Usage Frequency <= 5.107\ngini = 0.02\nsamples = 1212\nvalue = [1200, 12]", fillcolor="#e5823b"] ;
4 -> 28 ;
29 [label="Tenure <= 2.5\ngini = 0.018\nsamples = 1211\nvalue = [1200, 11]", fillcolor="#e5823b"] ;
28 -> 29 ;
30 [label="Subscription Type_0 <= 0.5\ngini = 0.32\nsamples = 25\nvalue = [20, 5]", fillcolor="#eca06a"] ;
29 -> 30 ;
31 [label="Usage Frequency <= 3.5\ngini = 0.408\nsamples = 7\nvalue = [2, 5]", fillcolor="#88c4ef"] ;
30 -> 31 ;
32 [label="gini = 0.0\nsamples = 5\nvalue = [0, 5]", fillcolor="#399de5"] ;
31 -> 32 ;
33 [label="gini = 0.0\nsamples = 2\nvalue = [2, 0]", fillcolor="#e58139"] ;
31 -> 33 ;
34 [label="gini = 0.0\nsamples = 18\nvalue = [18, 0]", fillcolor="#e58139"] ;
30 -> 34 ;
35 [label="Tenure <= 5.5\ngini = 0.01\nsamples = 1186\nvalue = [1180, 6]", fillcolor="#e5823a"] ;
29 -> 35 ;
36 [label="Total Spend <= 107.5\ngini = 0.105\nsamples = 54\nvalue = [51, 3]", fillcolor="#e78845"] ;
35 -> 36 ;
37 [label="gini = 0.0\nsamples = 1\nvalue = [0, 1]", fillcolor="#399de5"] ;
36 -> 37 ;
38 [label="Last Interaction <= 3.5\ngini = 0.073\nsamples = 53\nvalue = [51, 2]", fillcolor="#e68641"] ;
36 -> 38 ;
39 [label="Tenure <= 4.5\ngini = 0.444\nsamples = 3\nvalue = [2, 1]", fillcolor="#f2c09c"] ;
38 -> 39 ;
40 [label="gini = 0.0\nsamples = 2\nvalue = [2, 0]", fillcolor="#e58139"] ;
39 -> 40 ;
41 [label="gini = 0.0\nsamples = 1\nvalue = [0, 1]", fillcolor="#399de5"] ;
39 -> 41 ;
42 [label="CustomerID <= 8354.5\ngini = 0.039\nsamples = 50\nvalue = [49, 1]", fillcolor="#e6843d"] ;
38 -> 42 ;
43 [label="Total Spend <= 360.0\ngini = 0.278\nsamples = 6\nvalue = [5, 1]", fillcolor="#ea9a61"] ;
42 -> 43 ;
44 [label="gini = 0.0\nsamples = 1\nvalue = [0, 1]", fillcolor="#399de5"] ;
43 -> 44 ;
45 [label="gini = 0.0\nsamples = 5\nvalue = [5, 0]", fillcolor="#e58139"] ;
43 -> 45 ;
46 [label="gini = 0.0\nsamples = 44\nvalue = [44, 0]", fillcolor="#e58139"] ;
42 -> 46 ;
47 [label="CustomerID <= 43548.756\ngini = 0.005\nsamples = 1132\nvalue = [1129, 3]", fillcolor="#e5813a"] ;
35 -> 47 ;
48 [label="Total Spend <= 134.128\ngini = 0.004\nsamples = 1085\nvalue = [1083, 2]", fillcolor="#e58139"] ;
47 -> 48 ;
49 [label="Total Spend <= 132.128\ngini = 0.041\nsamples = 48\nvalue = [47, 1]", fillcolor="#e6843d"] ;
48 -> 49 ;
50 [label="gini = 0.0\nsamples = 47\nvalue = [47, 0]", fillcolor="#e58139"] ;
49 -> 50 ;
51 [label="gini = 0.0\nsamples = 1\nvalue = [0, 1]", fillcolor="#399de5"] ;
49 -> 51 ;
52 [label="CustomerID <= 7816.576\ngini = 0.002\nsamples = 1037\nvalue = [1036, 1]", fillcolor="#e58139"] ;
48 -> 52 ;
53 [label="CustomerID <= 7650.576\ngini = 0.012\nsamples = 159\nvalue = [158, 1]", fillcolor="#e5823a"] ;
52 -> 53 ;
54 [label="gini = 0.0\nsamples = 158\nvalue = [158, 0]", fillcolor="#e58139"] ;
53 -> 54 ;
55 [label="gini = 0.0\nsamples = 1\nvalue = [0, 1]", fillcolor="#399de5"] ;
53 -> 55 ;
56 [label="gini = 0.0\nsamples = 878\nvalue = [878, 0]", fillcolor="#e58139"] ;
52 -> 56 ;
57 [label="CustomerID <= 43562.256\ngini = 0.042\nsamples = 47\nvalue = [46, 1]", fillcolor="#e6843d"] ;
47 -> 57 ;
58 [label="gini = 0.0\nsamples = 1\nvalue = [0, 1]", fillcolor="#399de5"] ;
57 -> 58 ;
59 [label="gini = 0.0\nsamples = 46\nvalue = [46, 0]", fillcolor="#e58139"] ;
57 -> 59 ;
60 [label="gini = 0.0\nsamples = 1\nvalue = [0, 1]", fillcolor="#399de5"] ;
28 -> 60 ;
61 [label="Support Calls <= 3.001\ngini = 0.455\nsamples = 937\nvalue = [328, 609]", fillcolor="#a4d2f3"] ;
3 -> 61 ;
62 [label="Tenure <= 5.5\ngini = 0.118\nsamples = 350\nvalue = [328, 22]", fillcolor="#e78946"] ;
61 -> 62 ;
63 [label="Usage Frequency <= 3.5\ngini = 0.485\nsamples = 29\nvalue = [17, 12]", fillcolor="#f7dac5"] ;
62 -> 63 ;
64 [label="Total Spend <= 634.5\ngini = 0.48\nsamples = 20\nvalue = [8, 12]", fillcolor="#bddef6"] ;
63 -> 64 ;
65 [label="Total Spend <= 182.5\ngini = 0.18\nsamples = 10\nvalue = [1, 9]", fillcolor="#4fa8e8"] ;
64 -> 65 ;
66 [label="gini = 0.0\nsamples = 1\nvalue = [1, 0]", fillcolor="#e58139"] ;
65 -> 66 ;
67 [label="gini = 0.0\nsamples = 9\nvalue = [0, 9]", fillcolor="#399de5"] ;
65 -> 67 ;
68 [label="Subscription Type_0 <= 0.5\ngini = 0.42\nsamples = 10\nvalue = [7, 3]", fillcolor="#f0b78e"] ;
64 -> 68 ;
69 [label="gini = 0.0\nsamples = 2\nvalue = [0, 2]", fillcolor="#399de5"] ;
68 -> 69 ;
70 [label="CustomerID <= 25395.0\ngini = 0.219\nsamples = 8\nvalue = [7, 1]", fillcolor="#e99355"] ;
68 -> 70 ;
71 [label="gini = 0.0\nsamples = 6\nvalue = [6, 0]", fillcolor="#e58139"] ;
70 -> 71 ;
72 [label="CustomerID <= 30086.0\ngini = 0.5\nsamples = 2\nvalue = [1, 1]", fillcolor="#ffffff"] ;
70 -> 72 ;
73 [label="gini = 0.0\nsamples = 1\nvalue = [0, 1]", fillcolor="#399de5"] ;
72 -> 73 ;
74 [label="gini = 0.0\nsamples = 1\nvalue = [1, 0]", fillcolor="#e58139"] ;
72 -> 74 ;
75 [label="gini = 0.0\nsamples = 9\nvalue = [9, 0]", fillcolor="#e58139"] ;
63 -> 75 ;
76 [label="Total Spend <= 271.5\ngini = 0.06\nsamples = 321\nvalue = [311, 10]", fillcolor="#e6853f"] ;
62 -> 76 ;
77 [label="Usage Frequency <= 2.5\ngini = 0.239\nsamples = 65\nvalue = [56, 9]", fillcolor="#e99559"] ;
76 -> 77 ;
78 [label="Contract Length_1 <= 0.5\ngini = 0.476\nsamples = 23\nvalue = [14, 9]", fillcolor="#f6d2b8"] ;
77 -> 78 ;
79 [label="gini = 0.0\nsamples = 9\nvalue = [0, 9]", fillcolor="#399de5"] ;
78 -> 79 ;
80 [label="gini = 0.0\nsamples = 14\nvalue = [14, 0]", fillcolor="#e58139"] ;
78 -> 80 ;
81 [label="gini = 0.0\nsamples = 42\nvalue = [42, 0]", fillcolor="#e58139"] ;
77 -> 81 ;
82 [label="Payment Delay <= 14.5\ngini = 0.008\nsamples = 256\nvalue = [255, 1]", fillcolor="#e5813a"] ;
76 -> 82 ;
83 [label="gini = 0.0\nsamples = 240\nvalue = [240, 0]", fillcolor="#e58139"] ;
82 -> 83 ;
84 [label="Tenure <= 12.5\ngini = 0.117\nsamples = 16\nvalue = [15, 1]", fillcolor="#e78946"] ;
82 -> 84 ;
85 [label="CustomerID <= 22130.0\ngini = 0.444\nsamples = 3\nvalue = [2, 1]", fillcolor="#f2c09c"] ;
84 -> 85 ;
86 [label="gini = 0.0\nsamples = 2\nvalue = [2, 0]", fillcolor="#e58139"] ;
85 -> 86 ;
87 [label="gini = 0.0\nsamples = 1\nvalue = [0, 1]", fillcolor="#399de5"] ;
85 -> 87 ;
88 [label="gini = 0.0\nsamples = 13\nvalue = [13, 0]", fillcolor="#e58139"] ;
84 -> 88 ;
89 [label="gini = 0.0\nsamples = 587\nvalue = [0, 587]", fillcolor="#399de5"] ;
61 -> 89 ;
90 [label="Usage Frequency <= 6.895\ngini = 0.002\nsamples = 14807\nvalue = [14792, 15]", fillcolor="#e58139"] ;
2 -> 90 ;
91 [label="Usage Frequency <= 6.092\ngini = 0.021\nsamples = 570\nvalue = [564, 6]", fillcolor="#e5823b"] ;
90 -> 91 ;
92 [label="gini = 0.0\nsamples = 564\nvalue = [564, 0]", fillcolor="#e58139"] ;
91 -> 92 ;
93 [label="gini = 0.0\nsamples = 6\nvalue = [0, 6]", fillcolor="#399de5"] ;
91 -> 93 ;
94 [label="Payment Delay <= 11.025\ngini = 0.001\nsamples = 14237\nvalue = [14228, 9]", fillcolor="#e58139"] ;
90 -> 94 ;
95 [label="Total Spend <= 112.925\ngini = 0.0\nsamples = 10670\nvalue = [10668, 2]", fillcolor="#e58139"] ;
94 -> 95 ;
96 [label="Total Spend <= 112.425\ngini = 0.015\nsamples = 136\nvalue = [135, 1]", fillcolor="#e5823a"] ;
95 -> 96 ;
97 [label="gini = 0.0\nsamples = 135\nvalue = [135, 0]", fillcolor="#e58139"] ;
96 -> 97 ;
98 [label="gini = 0.0\nsamples = 1\nvalue = [0, 1]", fillcolor="#399de5"] ;
96 -> 98 ;
99 [label="Usage Frequency <= 7.58\ngini = 0.0\nsamples = 10534\nvalue = [10533, 1]", fillcolor="#e58139"] ;
95 -> 99 ;
100 [label="Usage Frequency <= 7.08\ngini = 0.004\nsamples = 446\nvalue = [445, 1]", fillcolor="#e58139"] ;
99 -> 100 ;
101 [label="gini = 0.0\nsamples = 445\nvalue = [445, 0]", fillcolor="#e58139"] ;
100 -> 101 ;
102 [label="gini = 0.0\nsamples = 1\nvalue = [0, 1]", fillcolor="#399de5"] ;
100 -> 102 ;
103 [label="gini = 0.0\nsamples = 10088\nvalue = [10088, 0]", fillcolor="#e58139"] ;
99 -> 103 ;
104 [label="Payment Delay <= 11.932\ngini = 0.004\nsamples = 3567\nvalue = [3560, 7]", fillcolor="#e58139"] ;
94 -> 104 ;
105 [label="gini = 0.0\nsamples = 5\nvalue = [0, 5]", fillcolor="#399de5"] ;
104 -> 105 ;
106 [label="Usage Frequency <= 7.628\ngini = 0.001\nsamples = 3562\nvalue = [3560, 2]", fillcolor="#e58139"] ;
104 -> 106 ;
107 [label="Usage Frequency <= 7.128\ngini = 0.013\nsamples = 148\nvalue = [147, 1]", fillcolor="#e5823a"] ;
106 -> 107 ;
108 [label="gini = 0.0\nsamples = 147\nvalue = [147, 0]", fillcolor="#e58139"] ;
107 -> 108 ;
109 [label="gini = 0.0\nsamples = 1\nvalue = [0, 1]", fillcolor="#399de5"] ;
107 -> 109 ;
110 [label="Age <= 60.261\ngini = 0.001\nsamples = 3414\nvalue = [3413, 1]", fillcolor="#e58139"] ;
106 -> 110 ;
111 [label="gini = 0.0\nsamples = 3058\nvalue = [3058, 0]", fillcolor="#e58139"] ;
110 -> 111 ;
112 [label="Age <= 60.761\ngini = 0.006\nsamples = 356\nvalue = [355, 1]", fillcolor="#e5813a"] ;
110 -> 112 ;
113 [label="gini = 0.0\nsamples = 1\nvalue = [0, 1]", fillcolor="#399de5"] ;
112 -> 113 ;
114 [label="gini = 0.0\nsamples = 355\nvalue = [355, 0]", fillcolor="#e58139"] ;
112 -> 114 ;
115 [label="Support Calls <= 4.002\ngini = 0.499\nsamples = 17532\nvalue = [8448, 9084]", fillcolor="#f1f8fd"] ;
1 -> 115 ;
116 [label="Gender_0 <= 0.917\ngini = 0.356\nsamples = 7585\nvalue = [5831, 1754]", fillcolor="#eda775"] ;
115 -> 116 ;
117 [label="Payment Delay <= 20.121\ngini = 0.494\nsamples = 3766\nvalue = [2089, 1677]", fillcolor="#fae6d8"] ;
116 -> 117 ;
118 [label="Usage Frequency <= 5.906\ngini = 0.058\nsamples = 1227\nvalue = [1190, 37]", fillcolor="#e6853f"] ;
117 -> 118 ;
119 [label="Support Calls <= 3.406\ngini = 0.283\nsamples = 205\nvalue = [170, 35]", fillcolor="#ea9b62"] ;
118 -> 119 ;
120 [label="Total Spend <= 114.0\ngini = 0.153\nsamples = 156\nvalue = [143, 13]", fillcolor="#e78c4b"] ;
119 -> 120 ;
121 [label="gini = 0.0\nsamples = 3\nvalue = [0, 3]", fillcolor="#399de5"] ;
120 -> 121 ;
122 [label="Tenure <= 7.5\ngini = 0.122\nsamples = 153\nvalue = [143, 10]", fillcolor="#e78a47"] ;
120 -> 122 ;
123 [label="Subscription Type_0 <= 0.5\ngini = 0.434\nsamples = 22\nvalue = [15.0, 7.0]", fillcolor="#f1bc95"] ;
122 -> 123 ;
124 [label="CustomerID <= 1794.5\ngini = 0.32\nsamples = 5\nvalue = [1, 4]", fillcolor="#6ab6ec"] ;
123 -> 124 ;
125 [label="gini = 0.0\nsamples = 1\nvalue = [1, 0]", fillcolor="#e58139"] ;
124 -> 125 ;
126 [label="gini = 0.0\nsamples = 4\nvalue = [0, 4]", fillcolor="#399de5"] ;
124 -> 126 ;
127 [label="Last Interaction <= 8.5\ngini = 0.291\nsamples = 17\nvalue = [14, 3]", fillcolor="#eb9c63"] ;
123 -> 127 ;
128 [label="Usage Frequency <= 2.5\ngini = 0.5\nsamples = 6\nvalue = [3, 3]", fillcolor="#ffffff"] ;
127 -> 128 ;
129 [label="gini = 0.0\nsamples = 3\nvalue = [0, 3]", fillcolor="#399de5"] ;
128 -> 129 ;
130 [label="gini = 0.0\nsamples = 3\nvalue = [3, 0]", fillcolor="#e58139"] ;
128 -> 130 ;
131 [label="gini = 0.0\nsamples = 11\nvalue = [11, 0]", fillcolor="#e58139"] ;
127 -> 131 ;
132 [label="Gender_1 <= 0.791\ngini = 0.045\nsamples = 131\nvalue = [128, 3]", fillcolor="#e6843e"] ;
122 -> 132 ;
133 [label="gini = 0.0\nsamples = 1\nvalue = [0, 1]", fillcolor="#399de5"] ;
132 -> 133 ;
134 [label="Total Spend <= 261.0\ngini = 0.03\nsamples = 130\nvalue = [128, 2]", fillcolor="#e5833c"] ;
132 -> 134 ;
135 [label="Contract Length_1 <= 0.5\ngini = 0.231\nsamples = 15\nvalue = [13, 2]", fillcolor="#e99457"] ;
134 -> 135 ;
136 [label="Support Calls <= 2.5\ngini = 0.444\nsamples = 3\nvalue = [1, 2]", fillcolor="#9ccef2"] ;
135 -> 136 ;
137 [label="gini = 0.0\nsamples = 2\nvalue = [0, 2]", fillcolor="#399de5"] ;
136 -> 137 ;
138 [label="gini = 0.0\nsamples = 1\nvalue = [1, 0]", fillcolor="#e58139"] ;
136 -> 138 ;
139 [label="gini = 0.0\nsamples = 12\nvalue = [12, 0]", fillcolor="#e58139"] ;
135 -> 139 ;
140 [label="gini = 0.0\nsamples = 115\nvalue = [115, 0]", fillcolor="#e58139"] ;
134 -> 140 ;
141 [label="Age <= 50.0\ngini = 0.495\nsamples = 49\nvalue = [27.0, 22.0]", fillcolor="#fae8da"] ;
119 -> 141 ;
142 [label="Tenure <= 5.5\ngini = 0.225\nsamples = 31\nvalue = [27, 4]", fillcolor="#e99456"] ;
141 -> 142 ;
143 [label="Usage Frequency <= 3.0\ngini = 0.5\nsamples = 6\nvalue = [3, 3]", fillcolor="#ffffff"] ;
142 -> 143 ;
144 [label="Subscription Type_0 <= 0.5\ngini = 0.375\nsamples = 4\nvalue = [1, 3]", fillcolor="#7bbeee"] ;
143 -> 144 ;
145 [label="gini = 0.0\nsamples = 3\nvalue = [0, 3]", fillcolor="#399de5"] ;
144 -> 145 ;
146 [label="gini = 0.0\nsamples = 1\nvalue = [1, 0]", fillcolor="#e58139"] ;
144 -> 146 ;
147 [label="gini = 0.0\nsamples = 2\nvalue = [2, 0]", fillcolor="#e58139"] ;
143 -> 147 ;
148 [label="Usage Frequency <= 5.406\ngini = 0.077\nsamples = 25\nvalue = [24, 1]", fillcolor="#e68641"] ;
142 -> 148 ;
149 [label="gini = 0.0\nsamples = 24\nvalue = [24, 0]", fillcolor="#e58139"] ;
148 -> 149 ;
150 [label="gini = 0.0\nsamples = 1\nvalue = [0, 1]", fillcolor="#399de5"] ;
148 -> 150 ;
151 [label="gini = 0.0\nsamples = 18\nvalue = [0, 18]", fillcolor="#399de5"] ;
141 -> 151 ;
152 [label="Gender_0 <= 0.12\ngini = 0.004\nsamples = 1022\nvalue = [1020, 2]", fillcolor="#e58139"] ;
118 -> 152 ;
153 [label="gini = 0.0\nsamples = 1020\nvalue = [1020, 0]", fillcolor="#e58139"] ;
152 -> 153 ;
154 [label="gini = 0.0\nsamples = 2\nvalue = [0, 2]", fillcolor="#399de5"] ;
152 -> 154 ;
155 [label="Total Spend <= 499.5\ngini = 0.457\nsamples = 2539\nvalue = [899.0, 1640.0]", fillcolor="#a6d3f3"] ;
117 -> 155 ;
156 [label="gini = 0.0\nsamples = 1175\nvalue = [0, 1175]", fillcolor="#399de5"] ;
155 -> 156 ;
157 [label="Contract Length_0 <= 0.896\ngini = 0.449\nsamples = 1364\nvalue = [899.0, 465.0]", fillcolor="#f2c29f"] ;
155 -> 157 ;
158 [label="gini = 0.0\nsamples = 447\nvalue = [0, 447]", fillcolor="#399de5"] ;
157 -> 158 ;
159 [label="Gender_0 <= 0.104\ngini = 0.038\nsamples = 917\nvalue = [899, 18]", fillcolor="#e6843d"] ;
157 -> 159 ;
160 [label="Usage Frequency <= 5.5\ngini = 0.034\nsamples = 915\nvalue = [899, 16]", fillcolor="#e5833d"] ;
159 -> 160 ;
161 [label="Support Calls <= 3.5\ngini = 0.187\nsamples = 144\nvalue = [129, 15]", fillcolor="#e89050"] ;
160 -> 161 ;
162 [label="Tenure <= 7.5\ngini = 0.037\nsamples = 106\nvalue = [104, 2]", fillcolor="#e6833d"] ;
161 -> 162 ;
163 [label="CustomerID <= 7103.0\ngini = 0.375\nsamples = 8\nvalue = [6, 2]", fillcolor="#eeab7b"] ;
162 -> 163 ;
164 [label="gini = 0.0\nsamples = 1\nvalue = [0, 1]", fillcolor="#399de5"] ;
163 -> 164 ;
165 [label="Age <= 20.0\ngini = 0.245\nsamples = 7\nvalue = [6, 1]", fillcolor="#e9965a"] ;
163 -> 165 ;
166 [label="Total Spend <= 765.0\ngini = 0.5\nsamples = 2\nvalue = [1, 1]", fillcolor="#ffffff"] ;
165 -> 166 ;
167 [label="gini = 0.0\nsamples = 1\nvalue = [1, 0]", fillcolor="#e58139"] ;
166 -> 167 ;
168 [label="gini = 0.0\nsamples = 1\nvalue = [0, 1]", fillcolor="#399de5"] ;
166 -> 168 ;
169 [label="gini = 0.0\nsamples = 5\nvalue = [5, 0]", fillcolor="#e58139"] ;
165 -> 169 ;
170 [label="gini = 0.0\nsamples = 98\nvalue = [98, 0]", fillcolor="#e58139"] ;
162 -> 170 ;
171 [label="Age <= 50.5\ngini = 0.45\nsamples = 38\nvalue = [25, 13]", fillcolor="#f3c3a0"] ;
161 -> 171 ;
172 [label="Age <= 19.0\ngini = 0.074\nsamples = 26\nvalue = [25, 1]", fillcolor="#e68641"] ;
171 -> 172 ;
173 [label="gini = 0.0\nsamples = 1\nvalue = [0, 1]", fillcolor="#399de5"] ;
172 -> 173 ;
174 [label="gini = 0.0\nsamples = 25\nvalue = [25, 0]", fillcolor="#e58139"] ;
172 -> 174 ;
175 [label="gini = 0.0\nsamples = 12\nvalue = [0, 12]", fillcolor="#399de5"] ;
171 -> 175 ;
176 [label="Total Spend <= 500.5\ngini = 0.003\nsamples = 771\nvalue = [770, 1]", fillcolor="#e58139"] ;
160 -> 176 ;
177 [label="Usage Frequency <= 24.5\ngini = 0.5\nsamples = 2\nvalue = [1, 1]", fillcolor="#ffffff"] ;
176 -> 177 ;
178 [label="gini = 0.0\nsamples = 1\nvalue = [0, 1]", fillcolor="#399de5"] ;
177 -> 178 ;
179 [label="gini = 0.0\nsamples = 1\nvalue = [1, 0]", fillcolor="#e58139"] ;
177 -> 179 ;
180 [label="gini = 0.0\nsamples = 769\nvalue = [769, 0]", fillcolor="#e58139"] ;
176 -> 180 ;
181 [label="gini = 0.0\nsamples = 2\nvalue = [0, 2]", fillcolor="#399de5"] ;
159 -> 181 ;
182 [label="Usage Frequency <= 2.592\ngini = 0.04\nsamples = 3819\nvalue = [3742, 77]", fillcolor="#e6843d"] ;
116 -> 182 ;
183 [label="Total Spend <= 260.0\ngini = 0.323\nsamples = 262\nvalue = [209, 53]", fillcolor="#eca16b"] ;
182 -> 183 ;
184 [label="Contract Length_1 <= 0.5\ngini = 0.484\nsamples = 34\nvalue = [14, 20]", fillcolor="#c4e2f7"] ;
183 -> 184 ;
185 [label="gini = 0.0\nsamples = 15\nvalue = [0, 15]", fillcolor="#399de5"] ;
184 -> 185 ;
186 [label="Support Calls <= 3.5\ngini = 0.388\nsamples = 19\nvalue = [14, 5]", fillcolor="#eeae80"] ;
184 -> 186 ;
187 [label="Tenure <= 5.5\ngini = 0.133\nsamples = 14\nvalue = [13, 1]", fillcolor="#e78b48"] ;
186 -> 187 ;
188 [label="gini = 0.0\nsamples = 1\nvalue = [0, 1]", fillcolor="#399de5"] ;
187 -> 188 ;
189 [label="gini = 0.0\nsamples = 13\nvalue = [13, 0]", fillcolor="#e58139"] ;
187 -> 189 ;
190 [label="Subscription Type_1 <= 0.5\ngini = 0.32\nsamples = 5\nvalue = [1, 4]", fillcolor="#6ab6ec"] ;
186 -> 190 ;
191 [label="gini = 0.0\nsamples = 4\nvalue = [0, 4]", fillcolor="#399de5"] ;
190 -> 191 ;
192 [label="gini = 0.0\nsamples = 1\nvalue = [1, 0]", fillcolor="#e58139"] ;
190 -> 192 ;
193 [label="Tenure <= 11.5\ngini = 0.248\nsamples = 228\nvalue = [195, 33]", fillcolor="#e9965b"] ;
183 -> 193 ;
194 [label="Contract Length_1 <= 0.5\ngini = 0.497\nsamples = 37\nvalue = [20, 17]", fillcolor="#fbece1"] ;
193 -> 194 ;
195 [label="gini = 0.0\nsamples = 12\nvalue = [0, 12]", fillcolor="#399de5"] ;
194 -> 195 ;
196 [label="Last Interaction <= 8.0\ngini = 0.32\nsamples = 25\nvalue = [20, 5]", fillcolor="#eca06a"] ;
194 -> 196 ;
197 [label="Payment Delay <= 19.0\ngini = 0.444\nsamples = 6\nvalue = [2, 4]", fillcolor="#9ccef2"] ;
196 -> 197 ;
198 [label="gini = 0.0\nsamples = 2\nvalue = [2, 0]", fillcolor="#e58139"] ;
197 -> 198 ;
199 [label="gini = 0.0\nsamples = 4\nvalue = [0, 4]", fillcolor="#399de5"] ;
197 -> 199 ;
200 [label="Age <= 62.5\ngini = 0.1\nsamples = 19\nvalue = [18, 1]", fillcolor="#e68844"] ;
196 -> 200 ;
201 [label="gini = 0.0\nsamples = 18\nvalue = [18, 0]", fillcolor="#e58139"] ;
200 -> 201 ;
202 [label="gini = 0.0\nsamples = 1\nvalue = [0, 1]", fillcolor="#399de5"] ;
200 -> 202 ;
203 [label="Support Calls <= 3.5\ngini = 0.154\nsamples = 191\nvalue = [175, 16]", fillcolor="#e78d4b"] ;
193 -> 203 ;
204 [label="Total Spend <= 289.5\ngini = 0.013\nsamples = 149\nvalue = [148, 1]", fillcolor="#e5823a"] ;
203 -> 204 ;
205 [label="Age <= 28.5\ngini = 0.245\nsamples = 7\nvalue = [6, 1]", fillcolor="#e9965a"] ;
204 -> 205 ;
206 [label="gini = 0.0\nsamples = 1\nvalue = [0, 1]", fillcolor="#399de5"] ;
205 -> 206 ;
207 [label="gini = 0.0\nsamples = 6\nvalue = [6, 0]", fillcolor="#e58139"] ;
205 -> 207 ;
208 [label="gini = 0.0\nsamples = 142\nvalue = [142, 0]", fillcolor="#e58139"] ;
204 -> 208 ;
209 [label="Age <= 50.5\ngini = 0.459\nsamples = 42\nvalue = [27.0, 15.0]", fillcolor="#f3c7a7"] ;
203 -> 209 ;
210 [label="gini = 0.0\nsamples = 27\nvalue = [27, 0]", fillcolor="#e58139"] ;
209 -> 210 ;
211 [label="gini = 0.0\nsamples = 15\nvalue = [0, 15]", fillcolor="#399de5"] ;
209 -> 211 ;
212 [label="Usage Frequency <= 5.5\ngini = 0.013\nsamples = 3557\nvalue = [3533, 24]", fillcolor="#e5823a"] ;
182 -> 212 ;
213 [label="Support Calls <= 3.5\ngini = 0.121\nsamples = 370\nvalue = [346, 24]", fillcolor="#e78a47"] ;
212 -> 213 ;
214 [label="Tenure <= 5.5\ngini = 0.013\nsamples = 297\nvalue = [295, 2]", fillcolor="#e5823a"] ;
213 -> 214 ;
215 [label="Payment Delay <= 17.5\ngini = 0.128\nsamples = 29\nvalue = [27, 2]", fillcolor="#e78a48"] ;
214 -> 215 ;
216 [label="Subscription Type_0 <= 0.5\ngini = 0.444\nsamples = 6\nvalue = [4, 2]", fillcolor="#f2c09c"] ;
215 -> 216 ;
217 [label="gini = 0.0\nsamples = 2\nvalue = [0, 2]", fillcolor="#399de5"] ;
216 -> 217 ;
218 [label="gini = 0.0\nsamples = 4\nvalue = [4, 0]", fillcolor="#e58139"] ;
216 -> 218 ;
219 [label="gini = 0.0\nsamples = 23\nvalue = [23, 0]", fillcolor="#e58139"] ;
215 -> 219 ;
220 [label="gini = 0.0\nsamples = 268\nvalue = [268, 0]", fillcolor="#e58139"] ;
214 -> 220 ;
221 [label="Age <= 50.5\ngini = 0.421\nsamples = 73\nvalue = [51, 22]", fillcolor="#f0b78e"] ;
213 -> 221 ;
222 [label="gini = 0.0\nsamples = 51\nvalue = [51, 0]", fillcolor="#e58139"] ;
221 -> 222 ;
223 [label="gini = 0.0\nsamples = 22\nvalue = [0, 22]", fillcolor="#399de5"] ;
221 -> 223 ;
224 [label="gini = 0.0\nsamples = 3187\nvalue = [3187, 0]", fillcolor="#e58139"] ;
212 -> 224 ;
225 [label="Tenure <= 23.16\ngini = 0.388\nsamples = 9947\nvalue = [2617, 7330]", fillcolor="#80c0ee"] ;
115 -> 225 ;
226 [label="Gender_1 <= 0.006\ngini = 0.405\nsamples = 3646\nvalue = [2617, 1029]", fillcolor="#efb387"] ;
225 -> 226 ;
227 [label="Usage Frequency <= 5.5\ngini = 0.116\nsamples = 1797\nvalue = [1686, 111]", fillcolor="#e78946"] ;
226 -> 227 ;
228 [label="Age <= 50.5\ngini = 0.465\nsamples = 296\nvalue = [187, 109]", fillcolor="#f4caac"] ;
227 -> 228 ;
229 [label="Tenure <= 5.5\ngini = 0.25\nsamples = 219\nvalue = [187, 32]", fillcolor="#e9975b"] ;
228 -> 229 ;
230 [label="Usage Frequency <= 3.5\ngini = 0.5\nsamples = 43\nvalue = [21, 22]", fillcolor="#f6fbfe"] ;
229 -> 230 ;
231 [label="Subscription Type_0 <= 0.5\ngini = 0.337\nsamples = 28\nvalue = [6, 22]", fillcolor="#6fb8ec"] ;
230 -> 231 ;
232 [label="gini = 0.0\nsamples = 16\nvalue = [0, 16]", fillcolor="#399de5"] ;
231 -> 232 ;
233 [label="Contract Length_1 <= 0.5\ngini = 0.5\nsamples = 12\nvalue = [6, 6]", fillcolor="#ffffff"] ;
231 -> 233 ;
234 [label="gini = 0.0\nsamples = 6\nvalue = [0, 6]", fillcolor="#399de5"] ;
233 -> 234 ;
235 [label="gini = 0.0\nsamples = 6\nvalue = [6, 0]", fillcolor="#e58139"] ;
233 -> 235 ;
236 [label="gini = 0.0\nsamples = 15\nvalue = [15, 0]", fillcolor="#e58139"] ;
230 -> 236 ;
237 [label="Contract Length_1 <= 0.5\ngini = 0.107\nsamples = 176\nvalue = [166, 10]", fillcolor="#e78945"] ;
229 -> 237 ;
238 [label="Tenure <= 11.5\ngini = 0.238\nsamples = 58\nvalue = [50, 8]", fillcolor="#e99559"] ;
237 -> 238 ;
239 [label="Usage Frequency <= 3.0\ngini = 0.496\nsamples = 11\nvalue = [5, 6]", fillcolor="#deeffb"] ;
238 -> 239 ;
240 [label="gini = 0.0\nsamples = 6\nvalue = [0, 6]", fillcolor="#399de5"] ;
239 -> 240 ;
241 [label="gini = 0.0\nsamples = 5\nvalue = [5, 0]", fillcolor="#e58139"] ;
239 -> 241 ;
242 [label="Total Spend <= 300.5\ngini = 0.081\nsamples = 47\nvalue = [45, 2]", fillcolor="#e68742"] ;
238 -> 242 ;
243 [label="Last Interaction <= 8.5\ngini = 0.408\nsamples = 7\nvalue = [5, 2]", fillcolor="#efb388"] ;
242 -> 243 ;
244 [label="gini = 0.0\nsamples = 2\nvalue = [0, 2]", fillcolor="#399de5"] ;
243 -> 244 ;
245 [label="gini = 0.0\nsamples = 5\nvalue = [5, 0]", fillcolor="#e58139"] ;
243 -> 245 ;
246 [label="gini = 0.0\nsamples = 40\nvalue = [40, 0]", fillcolor="#e58139"] ;
242 -> 246 ;
247 [label="Tenure <= 21.304\ngini = 0.033\nsamples = 118\nvalue = [116, 2]", fillcolor="#e5833c"] ;
237 -> 247 ;
248 [label="gini = 0.0\nsamples = 104\nvalue = [104, 0]", fillcolor="#e58139"] ;
247 -> 248 ;
249 [label="Total Spend <= 338.938\ngini = 0.245\nsamples = 14\nvalue = [12, 2]", fillcolor="#e9965a"] ;
247 -> 249 ;
250 [label="Usage Frequency <= 4.591\ngini = 0.444\nsamples = 3\nvalue = [1, 2]", fillcolor="#9ccef2"] ;
249 -> 250 ;
251 [label="gini = 0.0\nsamples = 2\nvalue = [0, 2]", fillcolor="#399de5"] ;
250 -> 251 ;
252 [label="gini = 0.0\nsamples = 1\nvalue = [1, 0]", fillcolor="#e58139"] ;
250 -> 252 ;
253 [label="gini = 0.0\nsamples = 11\nvalue = [11, 0]", fillcolor="#e58139"] ;
249 -> 253 ;
254 [label="gini = 0.0\nsamples = 77\nvalue = [0, 77]", fillcolor="#399de5"] ;
228 -> 254 ;
255 [label="Payment Delay <= 15.61\ngini = 0.003\nsamples = 1501\nvalue = [1499, 2]", fillcolor="#e58139"] ;
227 -> 255 ;
256 [label="gini = 0.0\nsamples = 1\nvalue = [0, 1]", fillcolor="#399de5"] ;
255 -> 256 ;
257 [label="Usage Frequency <= 6.64\ngini = 0.001\nsamples = 1500\nvalue = [1499, 1]", fillcolor="#e58139"] ;
255 -> 257 ;
258 [label="Usage Frequency <= 6.14\ngini = 0.041\nsamples = 48\nvalue = [47, 1]", fillcolor="#e6843d"] ;
257 -> 258 ;
259 [label="gini = 0.0\nsamples = 47\nvalue = [47, 0]", fillcolor="#e58139"] ;
258 -> 259 ;
260 [label="gini = 0.0\nsamples = 1\nvalue = [0, 1]", fillcolor="#399de5"] ;
258 -> 260 ;
261 [label="gini = 0.0\nsamples = 1452\nvalue = [1452, 0]", fillcolor="#e58139"] ;
257 -> 261 ;
262 [label="Payment Delay <= 20.077\ngini = 0.5\nsamples = 1849\nvalue = [931, 918]", fillcolor="#fffdfc"] ;
226 -> 262 ;
263 [label="Usage Frequency <= 5.965\ngini = 0.157\nsamples = 606\nvalue = [554, 52]", fillcolor="#e78d4c"] ;
262 -> 263 ;
264 [label="Age <= 50.266\ngini = 0.499\nsamples = 104\nvalue = [54.0, 50.0]", fillcolor="#fdf6f0"] ;
263 -> 264 ;
265 [label="Contract Length_1 <= 0.679\ngini = 0.245\nsamples = 63\nvalue = [54, 9]", fillcolor="#e9965a"] ;
264 -> 265 ;
266 [label="Usage Frequency <= 4.433\ngini = 0.475\nsamples = 18\nvalue = [11, 7]", fillcolor="#f6d1b7"] ;
265 -> 266 ;
267 [label="Last Interaction <= 14.783\ngini = 0.486\nsamples = 12\nvalue = [5, 7]", fillcolor="#c6e3f8"] ;
266 -> 267 ;
268 [label="gini = 0.0\nsamples = 4\nvalue = [0, 4]", fillcolor="#399de5"] ;
267 -> 268 ;
269 [label="Last Interaction <= 20.5\ngini = 0.469\nsamples = 8\nvalue = [5, 3]", fillcolor="#f5cdb0"] ;
267 -> 269 ;
270 [label="gini = 0.0\nsamples = 4\nvalue = [4, 0]", fillcolor="#e58139"] ;
269 -> 270 ;
271 [label="CustomerID <= 10173.5\ngini = 0.375\nsamples = 4\nvalue = [1, 3]", fillcolor="#7bbeee"] ;
269 -> 271 ;
272 [label="gini = 0.0\nsamples = 1\nvalue = [1, 0]", fillcolor="#e58139"] ;
271 -> 272 ;
273 [label="gini = 0.0\nsamples = 3\nvalue = [0, 3]", fillcolor="#399de5"] ;
271 -> 273 ;
274 [label="gini = 0.0\nsamples = 6\nvalue = [6, 0]", fillcolor="#e58139"] ;
266 -> 274 ;
275 [label="Tenure <= 5.5\ngini = 0.085\nsamples = 45\nvalue = [43, 2]", fillcolor="#e68742"] ;
265 -> 275 ;
276 [label="Total Spend <= 378.5\ngini = 0.346\nsamples = 9\nvalue = [7, 2]", fillcolor="#eca572"] ;
275 -> 276 ;
277 [label="Tenure <= 2.5\ngini = 0.444\nsamples = 3\nvalue = [1, 2]", fillcolor="#9ccef2"] ;
276 -> 277 ;
278 [label="gini = 0.0\nsamples = 1\nvalue = [1, 0]", fillcolor="#e58139"] ;
277 -> 278 ;
279 [label="gini = 0.0\nsamples = 2\nvalue = [0, 2]", fillcolor="#399de5"] ;
277 -> 279 ;
280 [label="gini = 0.0\nsamples = 6\nvalue = [6, 0]", fillcolor="#e58139"] ;
276 -> 280 ;
281 [label="gini = 0.0\nsamples = 36\nvalue = [36, 0]", fillcolor="#e58139"] ;
275 -> 281 ;
282 [label="gini = 0.0\nsamples = 41\nvalue = [0, 41]", fillcolor="#399de5"] ;
264 -> 282 ;
283 [label="Gender_0 <= 0.341\ngini = 0.008\nsamples = 502\nvalue = [500, 2]", fillcolor="#e5823a"] ;
263 -> 283 ;
284 [label="Support Calls <= 5.704\ngini = 0.004\nsamples = 501\nvalue = [500.0, 1.0]", fillcolor="#e58139"] ;
283 -> 284 ;
285 [label="Support Calls <= 5.204\ngini = 0.022\nsamples = 92\nvalue = [91, 1]", fillcolor="#e5823b"] ;
284 -> 285 ;
286 [label="gini = 0.0\nsamples = 91\nvalue = [91, 0]", fillcolor="#e58139"] ;
285 -> 286 ;
287 [label="gini = 0.0\nsamples = 1\nvalue = [0, 1]", fillcolor="#399de5"] ;
285 -> 287 ;
288 [label="gini = 0.0\nsamples = 409\nvalue = [409, 0]", fillcolor="#e58139"] ;
284 -> 288 ;
289 [label="gini = 0.0\nsamples = 1\nvalue = [0, 1]", fillcolor="#399de5"] ;
283 -> 289 ;
290 [label="Total Spend <= 501.5\ngini = 0.423\nsamples = 1243\nvalue = [377.0, 866.0]", fillcolor="#8fc8f0"] ;
262 -> 290 ;
291 [label="gini = 0.0\nsamples = 549\nvalue = [0, 549]", fillcolor="#399de5"] ;
290 -> 291 ;
292 [label="Contract Length_0 <= 0.897\ngini = 0.496\nsamples = 694\nvalue = [377, 317]", fillcolor="#fbebdf"] ;
290 -> 292 ;
293 [label="gini = 0.0\nsamples = 287\nvalue = [0, 287]", fillcolor="#399de5"] ;
292 -> 293 ;
294 [label="Usage Frequency <= 4.795\ngini = 0.137\nsamples = 407\nvalue = [377, 30]", fillcolor="#e78b49"] ;
292 -> 294 ;
295 [label="Age <= 50.5\ngini = 0.493\nsamples = 59\nvalue = [33, 26]", fillcolor="#f9e4d5"] ;
294 -> 295 ;
296 [label="Tenure <= 8.0\ngini = 0.193\nsamples = 37\nvalue = [33, 4]", fillcolor="#e89051"] ;
295 -> 296 ;
297 [label="Subscription Type_0 <= 0.5\ngini = 0.5\nsamples = 8\nvalue = [4, 4]", fillcolor="#ffffff"] ;
296 -> 297 ;
298 [label="gini = 0.0\nsamples = 3\nvalue = [0, 3]", fillcolor="#399de5"] ;
297 -> 298 ;
299 [label="Total Spend <= 882.5\ngini = 0.32\nsamples = 5\nvalue = [4, 1]", fillcolor="#eca06a"] ;
297 -> 299 ;
300 [label="gini = 0.0\nsamples = 4\nvalue = [4, 0]", fillcolor="#e58139"] ;
299 -> 300 ;
301 [label="gini = 0.0\nsamples = 1\nvalue = [0, 1]", fillcolor="#399de5"] ;
299 -> 301 ;
302 [label="gini = 0.0\nsamples = 29\nvalue = [29, 0]", fillcolor="#e58139"] ;
296 -> 302 ;
303 [label="gini = 0.0\nsamples = 22\nvalue = [0, 22]", fillcolor="#399de5"] ;
295 -> 303 ;
304 [label="Gender_1 <= 0.582\ngini = 0.023\nsamples = 348\nvalue = [344, 4]", fillcolor="#e5823b"] ;
294 -> 304 ;
305 [label="gini = 0.0\nsamples = 1\nvalue = [0, 1]", fillcolor="#399de5"] ;
304 -> 305 ;
306 [label="Usage Frequency <= 5.5\ngini = 0.017\nsamples = 347\nvalue = [344.0, 3.0]", fillcolor="#e5823b"] ;
304 -> 306 ;
307 [label="Age <= 53.0\ngini = 0.305\nsamples = 16\nvalue = [13, 3]", fillcolor="#eb9e67"] ;
306 -> 307 ;
308 [label="gini = 0.0\nsamples = 13\nvalue = [13, 0]", fillcolor="#e58139"] ;
307 -> 308 ;
309 [label="gini = 0.0\nsamples = 3\nvalue = [0, 3]", fillcolor="#399de5"] ;
307 -> 309 ;
310 [label="gini = 0.0\nsamples = 331\nvalue = [331, 0]", fillcolor="#e58139"] ;
306 -> 310 ;
311 [label="gini = 0.0\nsamples = 6301\nvalue = [0, 6301]", fillcolor="#399de5"] ;
225 -> 311 ;
312 [label="gini = 0.0\nsamples = 15552\nvalue = [0, 15552]", fillcolor="#399de5"] ;
0 -> 312 [labeldistance=2.5, labelangle=-45, headlabel="False"] ;
}